<?xml version="1.0"?>
<opencv_storage>
<cascade>
  <stageType>BOOST</stageType>
  <featureType>HAAR</featureType>
  <height>20</height>
  <width>20</width>
  <stageParams>
    <boostType>GAB</boostType>
    <minHitRate>9.9500000476837158e-01</minHitRate>
    <maxFalseAlarm>5.0000000000000000e-01</maxFalseAlarm>
    <weightTrimRate>9.4999999999999996e-01</weightTrimRate>
    <maxDepth>1</maxDepth>
    <maxWeakCount>100</maxWeakCount></stageParams>
  <featureParams>
    <maxCatCount>0</maxCatCount>
    <featSize>1</featSize>
    <mode>BASIC</mode></featureParams>
  <stageNum>16</stageNum>
  <stages>
    <!-- stage 0 -->
    <_>
      <maxWeakCount>2</maxWeakCount>
      <stageThreshold>-1.0348901897668839e-01</stageThreshold>
      <weakClassifiers>
        <_>
          <internalNodes>
            0 -1 34 1.9490748643875122e-02</internalNodes>
          <leafValues>
            -9.3253010511398315e-01 8.1751149892807007e-01</leafValues></_>
        <_>
          <internalNodes>
            0 -1 56 -6.7450642585754395e-02</internalNodes>
          <leafValues>
            8.2904112339019775e-01 -7.7038753032684326e-01</leafValues></_></weakClassifiers></_>
    <!-- stage 1 -->
    <_>
      <maxWeakCount>3</maxWeakCount>
      <stageThreshold>-8.1828749179840088e-01</stageThreshold>
      <weakClassifiers>
        <_>
          <internalNodes>
            0 -1 12 1.3699870556592941e-02</internalNodes>
          <leafValues>
            -8.8073396682739258e-01 8.3082705736160278e-01</leafValues></_>
        <_>
          <internalNodes>
            0 -1 0 1.0094264149665833e-01</internalNodes>
          <leafValues>
            -6.9532847404479980e-01 8.0137020349502563e-01</leafValues></_>
        <_>
          <internalNodes>
            0 -1 14 -6.7988999187946320e-02</internalNodes>
          <leafValues>
            7.5777494907379150e-01 -6.5165650844573975e-01</leafValues></_></weakClassifiers></_>
    <!-- stage 2 -->
    <_>
      <maxWeakCount>2</maxWeakCount>
      <stageThreshold>-1.1160053312778473e-01</stageThreshold>
      <weakClassifiers>
        <_>
          <internalNodes>
            0 -1 28 -3.7800068967044353e-03</internalNodes>
          <leafValues>
            6.8331921100616455e-01 -9.6238243579864502e-01</leafValues></_>
        <_>
          <internalNodes>
            0 -1 26 9.3226144090294838e-03</internalNodes>
          <leafValues>
            -5.9648901224136353e-01 8.5078191757202148e-01</leafValues></_></weakClassifiers></_>
    <!-- stage 3 -->
    <_>
      <maxWeakCount>4</maxWeakCount>
      <stageThreshold>-4.5136708766222000e-02</stageThreshold>
      <weakClassifiers>
        <_>
          <internalNodes>
            0 -1 46 -1.7102878540754318e-02</internalNodes>
          <leafValues>
            7.2046887874603271e-01 -7.6470589637756348e-01</leafValues></_>
        <_>
          <internalNodes>
            0 -1 2 5.9124231338500977e-02</internalNodes>
          <leafValues>
            -6.8748331069946289e-01 7.0206004381179810e-01</leafValues></_>
        <_>
          <internalNodes>
            0 -1 15 -2.9053520411252975e-02</internalNodes>
          <leafValues>
            7.1601569652557373e-01 -6.5296834707260132e-01</leafValues></_>
        <_>
          <internalNodes>
            0 -1 35 6.6578667610883713e-03</internalNodes>
          <leafValues>
            -6.9850653409957886e-01 7.0456820726394653e-01</leafValues></_></weakClassifiers></_>
    <!-- stage 4 -->
    <_>
      <maxWeakCount>4</maxWeakCount>
      <stageThreshold>-3.0619797110557556e-01</stageThreshold>
      <weakClassifiers>
        <_>
          <internalNodes>
            0 -1 5 -3.0055635143071413e-03</internalNodes>
          <leafValues>
            -9.5774650573730469e-01 6.3486844301223755e-01</leafValues></_>
        <_>
          <internalNodes>
            0 -1 13 -1.1156114935874939e-01</internalNodes>
          <leafValues>
            7.2979515790939331e-01 -5.6601881980895996e-01</leafValues></_>
        <_>
          <internalNodes>
            0 -1 8 3.7580229341983795e-02</internalNodes>
          <leafValues>
            -5.5306965112686157e-01 6.9872140884399414e-01</leafValues></_>
        <_>
          <internalNodes>
            0 -1 31 -5.5826054885983467e-03</internalNodes>
          <leafValues>
            -9.5534104108810425e-01 4.7482299804687500e-01</leafValues></_></weakClassifiers></_>
    <!-- stage 5 -->
    <_>
      <maxWeakCount>2</maxWeakCount>
      <stageThreshold>-2.3059569299221039e-01</stageThreshold>
      <weakClassifiers>
        <_>
          <internalNodes>
            0 -1 21 3.7324754521250725e-03</internalNodes>
          <leafValues>
            6.5282392501831055e-01 -9.6621620655059814e-01</leafValues></_>
        <_>
          <internalNodes>
            0 -1 1 2.2751647979021072e-02</internalNodes>
          <leafValues>
            -5.6280618906021118e-01 7.3562049865722656e-01</leafValues></_></weakClassifiers></_>
    <!-- stage 6 -->
    <_>
      <maxWeakCount>5</maxWeakCount>
      <stageThreshold>-1.0683176517486572e+00</stageThreshold>
      <weakClassifiers>
        <_>
          <internalNodes>
            0 -1 11 2.3995090276002884e-02</internalNodes>
          <leafValues>
            -8.6495178937911987e-01 6.4676201343536377e-01</leafValues></_>
        <_>
          <internalNodes>
            0 -1 58 -3.9614425040781498e-03</internalNodes>
          <leafValues>
            5.2685016393661499e-01 -7.6271200180053711e-01</leafValues></_>
        <_>
          <internalNodes>
            0 -1 12 1.9291287288069725e-02</internalNodes>
          <leafValues>
            -7.7974951267242432e-01 4.9743655323982239e-01</leafValues></_>
        <_>
          <internalNodes>
            0 -1 25 1.2474164366722107e-02</internalNodes>
          <leafValues>
            -5.2169054746627808e-01 6.5566772222518921e-01</leafValues></_>
        <_>
          <internalNodes>
            0 -1 18 8.1792697310447693e-03</internalNodes>
          <leafValues>
            3.4907239675521851e-01 -9.2719960212707520e-01</leafValues></_></weakClassifiers></_>
    <!-- stage 7 -->
    <_>
      <maxWeakCount>4</maxWeakCount>
      <stageThreshold>-3.8078132271766663e-01</stageThreshold>
      <weakClassifiers>
        <_>
          <internalNodes>
            0 -1 42 -7.2416499257087708e-02</internalNodes>
          <leafValues>
            6.9272238016128540e-01 -7.0025837421417236e-01</leafValues></_>
        <_>
          <internalNodes>
            0 -1 6 1.9489992409944534e-02</internalNodes>
          <leafValues>
            -7.6406955718994141e-01 4.7509703040122986e-01</leafValues></_>
        <_>
          <internalNodes>
            0 -1 24 1.0097726044477895e-04</internalNodes>
          <leafValues>
            -9.6676081418991089e-01 3.5134714841842651e-01</leafValues></_>
        <_>
          <internalNodes>
            0 -1 39 1.3239296153187752e-02</internalNodes>
          <leafValues>
            -5.0696712732315063e-01 6.5992683172225952e-01</leafValues></_></weakClassifiers></_>
    <!-- stage 8 -->
    <_>
      <maxWeakCount>4</maxWeakCount>
      <stageThreshold>-5.6965756416320801e-01</stageThreshold>
      <weakClassifiers>
        <_>
          <internalNodes>
            0 -1 27 1.1826233938336372e-02</internalNodes>
          <leafValues>
            5.5572873353958130e-01 -9.8156684637069702e-01</leafValues></_>
        <_>
          <internalNodes>
            0 -1 29 -1.4180321246385574e-02</internalNodes>
          <leafValues>
            -9.1787451505661011e-01 3.7589618563652039e-01</leafValues></_>
        <_>
          <internalNodes>
            0 -1 9 2.6261574029922485e-01</internalNodes>
          <leafValues>
            -7.0675063133239746e-01 4.0333214402198792e-01</leafValues></_>
        <_>
          <internalNodes>
            0 -1 20 2.6016090065240860e-02</internalNodes>
          <leafValues>
            -5.5513077974319458e-01 4.9923884868621826e-01</leafValues></_></weakClassifiers></_>
    <!-- stage 9 -->
    <_>
      <maxWeakCount>5</maxWeakCount>
      <stageThreshold>-3.9092132449150085e-01</stageThreshold>
      <weakClassifiers>
        <_>
          <internalNodes>
            0 -1 52 -1.0555143468081951e-02</internalNodes>
          <leafValues>
            -8.8148146867752075e-01 6.0000002384185791e-01</leafValues></_>
        <_>
          <internalNodes>
            0 -1 37 2.6910651940852404e-03</internalNodes>
          <leafValues>
            -8.7290966510772705e-01 3.7964934110641479e-01</leafValues></_>
        <_>
          <internalNodes>
            0 -1 60 -2.9891846701502800e-02</internalNodes>
          <leafValues>
            6.4114010334014893e-01 -5.5441266298294067e-01</leafValues></_>
        <_>
          <internalNodes>
            0 -1 10 5.0996482372283936e-02</internalNodes>
          <leafValues>
            3.2177859544754028e-01 -9.5479285717010498e-01</leafValues></_>
        <_>
          <internalNodes>
            0 -1 17 5.1279319450259209e-03</internalNodes>
          <leafValues>
            -8.5306656360626221e-01 3.4354490041732788e-01</leafValues></_></weakClassifiers></_>
    <!-- stage 10 -->
    <_>
      <maxWeakCount>5</maxWeakCount>
      <stageThreshold>-3.8473328948020935e-01</stageThreshold>
      <weakClassifiers>
        <_>
          <internalNodes>
            0 -1 43 5.1422724500298500e-03</internalNodes>
          <leafValues>
            -8.2771533727645874e-01 5.8475261926651001e-01</leafValues></_>
        <_>
          <internalNodes>
            0 -1 54 -6.3265142962336540e-03</internalNodes>
          <leafValues>
            -8.4367996454238892e-01 3.8949853181838989e-01</leafValues></_>
        <_>
          <internalNodes>
            0 -1 4 4.4279817491769791e-02</internalNodes>
          <leafValues>
            -8.9442455768585205e-01 3.0751469731330872e-01</leafValues></_>
        <_>
          <internalNodes>
            0 -1 16 5.6444841902703047e-04</internalNodes>
          <leafValues>
            -8.7649661302566528e-01 2.8451654314994812e-01</leafValues></_>
        <_>
          <internalNodes>
            0 -1 33 1.7282120883464813e-02</internalNodes>
          <leafValues>
            -4.7720775008201599e-01 6.2246543169021606e-01</leafValues></_></weakClassifiers></_>
    <!-- stage 11 -->
    <_>
      <maxWeakCount>5</maxWeakCount>
      <stageThreshold>-4.3658402562141418e-01</stageThreshold>
      <weakClassifiers>
        <_>
          <internalNodes>
            0 -1 48 1.4410333242267370e-03</internalNodes>
          <leafValues>
            -8.7854248285293579e-01 5.7222664356231689e-01</leafValues></_>
        <_>
          <internalNodes>
            0 -1 19 9.4577241688966751e-03</internalNodes>
          <leafValues>
            4.0068072080612183e-01 -8.3420348167419434e-01</leafValues></_>
        <_>
          <internalNodes>
            0 -1 57 5.6725824251770973e-03</internalNodes>
          <leafValues>
            -6.8162941932678223e-01 4.4816061854362488e-01</leafValues></_>
        <_>
          <internalNodes>
            0 -1 23 -2.1471848594956100e-04</internalNodes>
          <leafValues>
            -9.6809709072113037e-01 2.5642126798629761e-01</leafValues></_>
        <_>
          <internalNodes>
            0 -1 51 3.1265022698789835e-03</internalNodes>
          <leafValues>
            2.5634133815765381e-01 -8.8955491781234741e-01</leafValues></_></weakClassifiers></_>
    <!-- stage 12 -->
    <_>
      <maxWeakCount>5</maxWeakCount>
      <stageThreshold>-8.6572742462158203e-01</stageThreshold>
      <weakClassifiers>
        <_>
          <internalNodes>
            0 -1 22 2.1428498439490795e-03</internalNodes>
          <leafValues>
            5.6190478801727295e-01 -8.6666667461395264e-01</leafValues></_>
        <_>
          <internalNodes>
            0 -1 53 4.0779501432552934e-04</internalNodes>
          <leafValues>
            -6.5751802921295166e-01 5.0657755136489868e-01</leafValues></_>
        <_>
          <internalNodes>
            0 -1 38 -3.2928131520748138e-02</internalNodes>
          <leafValues>
            4.1675370931625366e-01 -6.4122998714447021e-01</leafValues></_>
        <_>
          <internalNodes>
            0 -1 32 1.0652335360646248e-02</internalNodes>
          <leafValues>
            -4.1423729062080383e-01 6.1081612110137939e-01</leafValues></_>
        <_>
          <internalNodes>
            0 -1 36 -3.9306079270318151e-04</internalNodes>
          <leafValues>
            2.8535306453704834e-01 -9.8556023836135864e-01</leafValues></_></weakClassifiers></_>
    <!-- stage 13 -->
    <_>
      <maxWeakCount>5</maxWeakCount>
      <stageThreshold>-1.0903797149658203e+00</stageThreshold>
      <weakClassifiers>
        <_>
          <internalNodes>
            0 -1 55 2.1287836134433746e-03</internalNodes>
          <leafValues>
            6.2063229084014893e-01 -8.2550334930419922e-01</leafValues></_>
        <_>
          <internalNodes>
            0 -1 3 5.4006958380341530e-03</internalNodes>
          <leafValues>
            -6.0722112655639648e-01 5.3248113393783569e-01</leafValues></_>
        <_>
          <internalNodes>
            0 -1 40 1.1500442633405328e-03</internalNodes>
          <leafValues>
            -6.5711027383804321e-01 5.2434903383255005e-01</leafValues></_>
        <_>
          <internalNodes>
            0 -1 61 -9.3856733292341232e-03</internalNodes>
          <leafValues>
            4.3884918093681335e-01 -6.8031644821166992e-01</leafValues></_>
        <_>
          <internalNodes>
            0 -1 49 1.2969139963388443e-02</internalNodes>
          <leafValues>
            -9.0606647729873657e-01 3.2459878921508789e-01</leafValues></_></weakClassifiers></_>
    <!-- stage 14 -->
    <_>
      <maxWeakCount>4</maxWeakCount>
      <stageThreshold>-3.2112029194831848e-01</stageThreshold>
      <weakClassifiers>
        <_>
          <internalNodes>
            0 -1 45 -7.5324811041355133e-03</internalNodes>
          <leafValues>
            6.1730450391769409e-01 -8.1208056211471558e-01</leafValues></_>
        <_>
          <internalNodes>
            0 -1 50 1.1196135543286800e-02</internalNodes>
          <leafValues>
            5.6280201673507690e-01 -8.1525903940200806e-01</leafValues></_>
        <_>
          <internalNodes>
            0 -1 41 4.4928360730409622e-03</internalNodes>
          <leafValues>
            -6.8526595830917358e-01 5.4147040843963623e-01</leafValues></_>
        <_>
          <internalNodes>
            0 -1 47 -1.1709524318575859e-02</internalNodes>
          <leafValues>
            6.1342412233352661e-01 -5.6785780191421509e-01</leafValues></_></weakClassifiers></_>
    <!-- stage 15 -->
    <_>
      <maxWeakCount>4</maxWeakCount>
      <stageThreshold>-1.8787215650081635e-01</stageThreshold>
      <weakClassifiers>
        <_>
          <internalNodes>
            0 -1 44 -1.2906108051538467e-02</internalNodes>
          <leafValues>
            -8.5185188055038452e-01 6.9538730382919312e-01</leafValues></_>
        <_>
          <internalNodes>
            0 -1 30 2.1709355060011148e-03</internalNodes>
          <leafValues>
            4.9407523870468140e-01 -9.3717217445373535e-01</leafValues></_>
        <_>
          <internalNodes>
            0 -1 59 -2.9163500294089317e-02</internalNodes>
          <leafValues>
            1. -4.7613149881362915e-01</leafValues></_>
        <_>
          <internalNodes>
            0 -1 7 2.2277835756540298e-02</internalNodes>
          <leafValues>
            -6.8410480022430420e-01 6.4603596925735474e-01</leafValues></_></weakClassifiers></_></stages>
  <features>
    <_>
      <rects>
        <_>
          0 6 8 12 -1.</_>
        <_>
          4 6 4 12 2.</_></rects>
      <tilted>0</tilted></_>
    <_>
      <rects>
        <_>
          0 8 4 4 -1.</_>
        <_>
          2 8 2 4 2.</_></rects>
      <tilted>0</tilted></_>
    <_>
      <rects>
        <_>
          0 8 6 8 -1.</_>
        <_>
          3 8 3 8 2.</_></rects>
      <tilted>0</tilted></_>
    <_>
      <rects>
        <_>
          1 7 2 5 -1.</_>
        <_>
          2 7 1 5 2.</_></rects>
      <tilted>0</tilted></_>
    <_>
      <rects>
        <_>
          1 8 18 12 -1.</_>
        <_>
          7 8 6 12 3.</_></rects>
      <tilted>0</tilted></_>
    <_>
      <rects>
        <_>
          1 9 16 3 -1.</_>
        <_>
          9 9 8 3 2.</_></rects>
      <tilted>0</tilted></_>
    <_>
      <rects>
        <_>
          1 13 9 3 -1.</_>
        <_>
          4 13 3 3 3.</_></rects>
      <tilted>0</tilted></_>
    <_>
      <rects>
        <_>
          1 15 8 3 -1.</_>
        <_>
          5 15 4 3 2.</_></rects>
      <tilted>0</tilted></_>
    <_>
      <rects>
        <_>
          2 0 13 4 -1.</_>
        <_>
          2 2 13 2 2.</_></rects>
      <tilted>0</tilted></_>
    <_>
      <rects>
        <_>
          2 2 17 18 -1.</_>
        <_>
          2 8 17 6 3.</_></rects>
      <tilted>0</tilted></_>
    <_>
      <rects>
        <_>
          2 6 16 8 -1.</_>
        <_>
          10 6 8 8 2.</_></rects>
      <tilted>0</tilted></_>
    <_>
      <rects>
        <_>
          3 4 14 8 -1.</_>
        <_>
          3 8 14 4 2.</_></rects>
      <tilted>0</tilted></_>
    <_>
      <rects>
        <_>
          3 12 8 6 -1.</_>
        <_>
          3 12 4 3 2.</_>
        <_>
          7 15 4 3 2.</_></rects>
      <tilted>0</tilted></_>
    <_>
      <rects>
        <_>
          3 14 15 6 -1.</_>
        <_>
          3 17 15 3 2.</_></rects>
      <tilted>0</tilted></_>
    <_>
      <rects>
        <_>
          3 14 17 6 -1.</_>
        <_>
          3 17 17 3 2.</_></rects>
      <tilted>0</tilted></_>
    <_>
      <rects>
        <_>
          3 16 10 4 -1.</_>
        <_>
          3 18 10 2 2.</_></rects>
      <tilted>0</tilted></_>
    <_>
      <rects>
        <_>
          4 4 1 10 -1.</_>
        <_>
          4 9 1 5 2.</_></rects>
      <tilted>0</tilted></_>
    <_>
      <rects>
        <_>
          4 7 6 6 -1.</_>
        <_>
          6 7 2 6 3.</_></rects>
      <tilted>0</tilted></_>
    <_>
      <rects>
        <_>
          4 7 10 5 -1.</_>
        <_>
          9 7 5 5 2.</_></rects>
      <tilted>0</tilted></_>
    <_>
      <rects>
        <_>
          4 8 6 3 -1.</_>
        <_>
          6 8 2 3 3.</_></rects>
      <tilted>0</tilted></_>
    <_>
      <rects>
        <_>
          5 0 10 6 -1.</_>
        <_>
          5 2 10 2 3.</_></rects>
      <tilted>0</tilted></_>
    <_>
      <rects>
        <_>
          5 6 8 10 -1.</_>
        <_>
          5 11 8 5 2.</_></rects>
      <tilted>0</tilted></_>
    <_>
      <rects>
        <_>
          5 9 3 3 -1.</_>
        <_>
          6 9 1 3 3.</_></rects>
      <tilted>0</tilted></_>
    <_>
      <rects>
        <_>
          5 9 3 4 -1.</_>
        <_>
          6 9 1 4 3.</_></rects>
      <tilted>0</tilted></_>
    <_>
      <rects>
        <_>
          5 10 12 3 -1.</_>
        <_>
          11 10 6 3 2.</_></rects>
      <tilted>0</tilted></_>
    <_>
      <rects>
        <_>
          6 1 7 2 -1.</_>
        <_>
          6 2 7 1 2.</_></rects>
      <tilted>0</tilted></_>
    <_>
      <rects>
        <_>
          6 1 9 2 -1.</_>
        <_>
          6 2 9 1 2.</_></rects>
      <tilted>0</tilted></_>
    <_>
      <rects>
        <_>
          6 6 11 10 -1.</_>
        <_>
          6 11 11 5 2.</_></rects>
      <tilted>0</tilted></_>
    <_>
      <rects>
        <_>
          6 7 4 6 -1.</_>
        <_>
          8 7 2 6 2.</_></rects>
      <tilted>0</tilted></_>
    <_>
      <rects>
        <_>
          6 7 9 10 -1.</_>
        <_>
          6 12 9 5 2.</_></rects>
      <tilted>0</tilted></_>
    <_>
      <rects>
        <_>
          6 8 3 3 -1.</_>
        <_>
          7 8 1 3 3.</_></rects>
      <tilted>0</tilted></_>
    <_>
      <rects>
        <_>
          6 9 9 8 -1.</_>
        <_>
          6 13 9 4 2.</_></rects>
      <tilted>0</tilted></_>
    <_>
      <rects>
        <_>
          7 1 4 2 -1.</_>
        <_>
          7 2 4 1 2.</_></rects>
      <tilted>0</tilted></_>
    <_>
      <rects>
        <_>
          7 1 8 2 -1.</_>
        <_>
          7 2 8 1 2.</_></rects>
      <tilted>0</tilted></_>
    <_>
      <rects>
        <_>
          7 3 8 6 -1.</_>
        <_>
          7 6 8 3 2.</_></rects>
      <tilted>0</tilted></_>
    <_>
      <rects>
        <_>
          7 4 6 2 -1.</_>
        <_>
          7 5 6 1 2.</_></rects>
      <tilted>0</tilted></_>
    <_>
      <rects>
        <_>
          7 9 2 3 -1.</_>
        <_>
          8 9 1 3 2.</_></rects>
      <tilted>0</tilted></_>
    <_>
      <rects>
        <_>
          7 11 3 6 -1.</_>
        <_>
          7 14 3 3 2.</_></rects>
      <tilted>0</tilted></_>
    <_>
      <rects>
        <_>
          7 16 11 4 -1.</_>
        <_>
          7 18 11 2 2.</_></rects>
      <tilted>0</tilted></_>
    <_>
      <rects>
        <_>
          8 1 6 3 -1.</_>
        <_>
          8 2 6 1 3.</_></rects>
      <tilted>0</tilted></_>
    <_>
      <rects>
        <_>
          8 4 2 2 -1.</_>
        <_>
          8 5 2 1 2.</_></rects>
      <tilted>0</tilted></_>
    <_>
      <rects>
        <_>
          8 4 5 2 -1.</_>
        <_>
          8 5 5 1 2.</_></rects>
      <tilted>0</tilted></_>
    <_>
      <rects>
        <_>
          8 4 12 15 -1.</_>
        <_>
          14 4 6 15 2.</_></rects>
      <tilted>0</tilted></_>
    <_>
      <rects>
        <_>
          8 7 9 5 -1.</_>
        <_>
          11 7 3 5 3.</_></rects>
      <tilted>0</tilted></_>
    <_>
      <rects>
        <_>
          8 7 10 2 -1.</_>
        <_>
          13 7 5 2 2.</_></rects>
      <tilted>0</tilted></_>
    <_>
      <rects>
        <_>
          8 8 6 9 -1.</_>
        <_>
          8 11 6 3 3.</_></rects>
      <tilted>0</tilted></_>
    <_>
      <rects>
        <_>
          8 12 10 6 -1.</_>
        <_>
          8 12 5 3 2.</_>
        <_>
          13 15 5 3 2.</_></rects>
      <tilted>0</tilted></_>
    <_>
      <rects>
        <_>
          8 17 6 2 -1.</_>
        <_>
          8 18 6 1 2.</_></rects>
      <tilted>0</tilted></_>
    <_>
      <rects>
        <_>
          9 7 6 5 -1.</_>
        <_>
          12 7 3 5 2.</_></rects>
      <tilted>0</tilted></_>
    <_>
      <rects>
        <_>
          10 4 6 12 -1.</_>
        <_>
          10 8 6 4 3.</_></rects>
      <tilted>0</tilted></_>
    <_>
      <rects>
        <_>
          11 2 1 12 -1.</_>
        <_>
          11 6 1 4 3.</_></rects>
      <tilted>0</tilted></_>
    <_>
      <rects>
        <_>
          11 6 4 6 -1.</_>
        <_>
          13 6 2 6 2.</_></rects>
      <tilted>0</tilted></_>
    <_>
      <rects>
        <_>
          11 7 6 8 -1.</_>
        <_>
          11 11 6 4 2.</_></rects>
      <tilted>0</tilted></_>
    <_>
      <rects>
        <_>
          11 10 2 4 -1.</_>
        <_>
          11 10 1 2 2.</_>
        <_>
          12 12 1 2 2.</_></rects>
      <tilted>0</tilted></_>
    <_>
      <rects>
        <_>
          12 6 4 7 -1.</_>
        <_>
          14 6 2 7 2.</_></rects>
      <tilted>0</tilted></_>
    <_>
      <rects>
        <_>
          12 8 3 6 -1.</_>
        <_>
          13 8 1 6 3.</_></rects>
      <tilted>0</tilted></_>
    <_>
      <rects>
        <_>
          14 6 6 12 -1.</_>
        <_>
          17 6 3 12 2.</_></rects>
      <tilted>0</tilted></_>
    <_>
      <rects>
        <_>
          14 10 6 2 -1.</_>
        <_>
          16 10 2 2 3.</_></rects>
      <tilted>0</tilted></_>
    <_>
      <rects>
        <_>
          14 10 4 6 -1.</_>
        <_>
          14 10 2 3 2.</_>
        <_>
          16 13 2 3 2.</_></rects>
      <tilted>0</tilted></_>
    <_>
      <rects>
        <_>
          16 3 4 6 -1.</_>
        <_>
          18 3 2 6 2.</_></rects>
      <tilted>0</tilted></_>
    <_>
      <rects>
        <_>
          16 3 4 7 -1.</_>
        <_>
          18 3 2 7 2.</_></rects>
      <tilted>0</tilted></_>
    <_>
      <rects>
        <_>
          17 8 2 8 -1.</_>
        <_>
          18 8 1 8 2.</_></rects>
      <tilted>0</tilted></_></features></cascade>
</opencv_storage>
