<?xml version="1.0"?>
<opencv_storage>
<stage12>
  <maxWeakCount>5</maxWeakCount>
  <stageThreshold>-8.6572742462158203e-01</stageThreshold>
  <weakClassifiers>
    <_>
      <internalNodes>
        0 -1 38145 2.1428498439490795e-03</internalNodes>
      <leafValues>
        5.6190478801727295e-01 -8.6666667461395264e-01</leafValues></_>
    <_>
      <internalNodes>
        0 -1 64906 4.0779501432552934e-04</internalNodes>
      <leafValues>
        -6.5751802921295166e-01 5.0657755136489868e-01</leafValues></_>
    <_>
      <internalNodes>
        0 -1 49848 -3.2928131520748138e-02</internalNodes>
      <leafValues>
        4.1675370931625366e-01 -6.4122998714447021e-01</leafValues></_>
    <_>
      <internalNodes>
        0 -1 45802 1.0652335360646248e-02</internalNodes>
      <leafValues>
        -4.1423729062080383e-01 6.1081612110137939e-01</leafValues></_>
    <_>
      <internalNodes>
        0 -1 48512 -3.9306079270318151e-04</internalNodes>
      <leafValues>
        2.8535306453704834e-01 -9.8556023836135864e-01</leafValues></_></weakClassifiers></stage12>
</opencv_storage>
