<?xml version="1.0"?>
<opencv_storage>
<stage6>
  <maxWeakCount>5</maxWeakCount>
  <stageThreshold>-1.0683176517486572e+00</stageThreshold>
  <weakClassifiers>
    <_>
      <internalNodes>
        0 -1 24451 2.3995090276002884e-02</internalNodes>
      <leafValues>
        -8.6495178937911987e-01 6.4676201343536377e-01</leafValues></_>
    <_>
      <internalNodes>
        0 -1 72982 -3.9614425040781498e-03</internalNodes>
      <leafValues>
        5.2685016393661499e-01 -7.6271200180053711e-01</leafValues></_>
    <_>
      <internalNodes>
        0 -1 27122 1.9291287288069725e-02</internalNodes>
      <leafValues>
        -7.7974951267242432e-01 4.9743655323982239e-01</leafValues></_>
    <_>
      <internalNodes>
        0 -1 40704 1.2474164366722107e-02</internalNodes>
      <leafValues>
        -5.2169054746627808e-01 6.5566772222518921e-01</leafValues></_>
    <_>
      <internalNodes>
        0 -1 31771 8.1792697310447693e-03</internalNodes>
      <leafValues>
        3.4907239675521851e-01 -9.2719960212707520e-01</leafValues></_></weakClassifiers></stage6>
</opencv_storage>
